digraph Tree {
node [shape=box] ;
0 [label="economic_health <= 9.659\nmse = 1.353\nsamples = 960\nvalue = 5.456"] ;
1 [label="economic_health <= 8.069\nmse = 0.709\nsamples = 556\nvalue = 4.768"] ;
0 -> 1 [labeldistance=2.5, labelangle=45, headlabel="True"] ;
2 [label="social_support <= 0.566\nmse = 0.342\nsamples = 167\nvalue = 4.041"] ;
1 -> 2 ;
3 [label="mse = 0.358\nsamples = 30\nvalue = 3.538"] ;
2 -> 3 ;
4 [label="social_support <= 0.681\nmse = 0.27\nsamples = 137\nvalue = 4.152"] ;
2 -> 4 ;
5 [label="economic_health <= 7.415\nmse = 0.301\nsamples = 46\nvalue = 4.003"] ;
4 -> 5 ;
6 [label="mse = 0.147\nsamples = 20\nvalue = 4.316"] ;
5 -> 6 ;
7 [label="mse = 0.29\nsamples = 26\nvalue = 3.778"] ;
5 -> 7 ;
8 [label="generosity <= -0.007\nmse = 0.235\nsamples = 91\nvalue = 4.231"] ;
4 -> 8 ;
9 [label="mse = 0.166\nsamples = 50\nvalue = 4.088"] ;
8 -> 9 ;
10 [label="mse = 0.263\nsamples = 41\nvalue = 4.421"] ;
8 -> 10 ;
11 [label="social_support <= 0.78\nmse = 0.54\nsamples = 389\nvalue = 5.084"] ;
1 -> 11 ;
12 [label="social_support <= 0.727\nmse = 0.325\nsamples = 165\nvalue = 4.644"] ;
11 -> 12 ;
13 [label="corruption <= 0.768\nmse = 0.298\nsamples = 105\nvalue = 4.52"] ;
12 -> 13 ;
14 [label="mse = 0.323\nsamples = 37\nvalue = 4.316"] ;
13 -> 14 ;
15 [label="mse = 0.243\nsamples = 68\nvalue = 4.644"] ;
13 -> 15 ;
16 [label="generosity <= -0.117\nmse = 0.292\nsamples = 60\nvalue = 4.875"] ;
12 -> 16 ;
17 [label="mse = 0.222\nsamples = 20\nvalue = 4.608"] ;
16 -> 17 ;
18 [label="mse = 0.271\nsamples = 40\nvalue = 5.018"] ;
16 -> 18 ;
19 [label="freedom_to_make_life_choices <= 0.758\nmse = 0.448\nsamples = 224\nvalue = 5.411"] ;
11 -> 19 ;
20 [label="freedom_to_make_life_choices <= 0.637\nmse = 0.378\nsamples = 105\nvalue = 5.141"] ;
19 -> 20 ;
21 [label="mse = 0.251\nsamples = 40\nvalue = 4.89"] ;
20 -> 21 ;
22 [label="mse = 0.393\nsamples = 65\nvalue = 5.285"] ;
20 -> 22 ;
23 [label="social_support <= 0.898\nmse = 0.366\nsamples = 119\nvalue = 5.694"] ;
19 -> 23 ;
24 [label="mse = 0.346\nsamples = 95\nvalue = 5.581"] ;
23 -> 24 ;
25 [label="mse = 0.2\nsamples = 24\nvalue = 6.138"] ;
23 -> 25 ;
26 [label="economic_health <= 10.488\nmse = 0.701\nsamples = 404\nvalue = 6.398"] ;
0 -> 26 [labeldistance=2.5, labelangle=-45, headlabel="False"] ;
27 [label="social_support <= 0.865\nmse = 0.493\nsamples = 210\nvalue = 5.843"] ;
26 -> 27 ;
28 [label="generosity <= -0.101\nmse = 0.49\nsamples = 75\nvalue = 5.361"] ;
27 -> 28 ;
29 [label="mse = 0.485\nsamples = 38\nvalue = 5.076"] ;
28 -> 29 ;
30 [label="mse = 0.298\nsamples = 37\nvalue = 5.684"] ;
28 -> 30 ;
31 [label="generosity <= -0.168\nmse = 0.311\nsamples = 135\nvalue = 6.094"] ;
27 -> 31 ;
32 [label="mse = 0.209\nsamples = 36\nvalue = 5.691"] ;
31 -> 32 ;
33 [label="economic_health <= 9.885\nmse = 0.264\nsamples = 99\nvalue = 6.248"] ;
31 -> 33 ;
34 [label="mse = 0.341\nsamples = 31\nvalue = 6.511"] ;
33 -> 34 ;
35 [label="mse = 0.173\nsamples = 68\nvalue = 6.114"] ;
33 -> 35 ;
36 [label="freedom_to_make_life_choices <= 0.863\nmse = 0.27\nsamples = 194\nvalue = 6.97"] ;
26 -> 36 ;
37 [label="generosity <= 0.049\nmse = 0.188\nsamples = 81\nvalue = 6.582"] ;
36 -> 37 ;
38 [label="social_support <= 0.883\nmse = 0.15\nsamples = 55\nvalue = 6.39"] ;
37 -> 38 ;
39 [label="mse = 0.096\nsamples = 20\nvalue = 6.134"] ;
38 -> 39 ;
40 [label="mse = 0.121\nsamples = 35\nvalue = 6.541"] ;
38 -> 40 ;
41 [label="mse = 0.076\nsamples = 26\nvalue = 6.918"] ;
37 -> 41 ;
42 [label="social_support <= 0.935\nmse = 0.149\nsamples = 113\nvalue = 7.241"] ;
36 -> 42 ;
43 [label="generosity <= 0.076\nmse = 0.113\nsamples = 46\nvalue = 6.959"] ;
42 -> 43 ;
44 [label="mse = 0.12\nsamples = 21\nvalue = 6.838"] ;
43 -> 44 ;
45 [label="mse = 0.077\nsamples = 25\nvalue = 7.078"] ;
43 -> 45 ;
46 [label="corruption <= 0.349\nmse = 0.08\nsamples = 67\nvalue = 7.439"] ;
42 -> 46 ;
47 [label="mse = 0.03\nsamples = 32\nvalue = 7.585"] ;
46 -> 47 ;
48 [label="mse = 0.087\nsamples = 35\nvalue = 7.29"] ;
46 -> 48 ;
}